<?xml version="1.0"?>
<opencv_storage>
<cascade type_id="opencv-haar-classifier"><size>
    24 24</size>
  <stages>
    <_>
      <trees>
        <_>
          <_>
            <feature>
              <rects>
                <_>
                  0 11 24 4 -1.</_>
                <_>
                  8 11 8 4 3.</_></rects>
              <tilted>0</tilted></feature>
            <threshold>-1.4710837602615356e-01</threshold>
            <left_val>7.4358974358974361e-01</left_val>
            <right_val>-9.2156862745097812e-01</right_val></_></_>
        <_>
          <_>
            <feature>
              <rects>
                <_>
                  10 3 5 4 -1.</_>
                <_>
                  10 5 5 2 2.</_></rects>
              <tilted>0</tilted></feature>
            <threshold>-1.1757040396332741e-02</threshold>
            <left_val>4.9456313945893948e-01</left_val>
            <right_val>-7.5258180081666937e-01</right_val></_></_>
        <_>
          <_>
            <feature>
              <rects>
                <_>
                  10 19 14 4 -1.</_>
                <_>
                  17 19 7 4 2.</_></rects>
              <tilted>0</tilted></feature>
            <threshold>1.1455673724412918e-02</threshold>
            <left_val>-8.8896149417271841e-01</left_val>
            <right_val>3.1455673085836583e-01</right_val></_></_>
        <_>
          <_>
            <feature>
              <rects>
                <_>
                  5 6 9 4 -1.</_>
                <_>
                  8 6 3 4 3.</_></rects>
              <tilted>0</tilted></feature>
            <threshold>-1.0053393198177218e-03</threshold>
            <left_val>2.7759831841692428e-01</left_val>
            <right_val>-9.1813463542982254e-01</right_val></_></_></trees>
      <stage_threshold>-1.0819953680038452e+00</stage_threshold>
      <parent>-1</parent>
      <next>-1</next></_>
    <_>
      <trees>
        <_>
          <_>
            <feature>
              <rects>
                <_>
                  0 9 24 9 -1.</_>
                <_>
                  8 9 8 9 3.</_></rects>
              <tilted>0</tilted></feature>
            <threshold>-3.0920201539993286e-01</threshold>
            <left_val>5.5029585798816560e-01</left_val>
            <right_val>-9.1062562065540953e-01</right_val></_></_>
        <_>
          <_>
            <feature>
              <rects>
                <_>
                  5 15 6 5 -1.</_>
                <_>
                  7 15 2 5 3.</_></rects>
              <tilted>0</tilted></feature>
            <threshold>-3.0966933816671371e-02</threshold>
            <left_val>8.1755401042342313e-01</left_val>
            <right_val>-6.5020282706698107e-01</right_val></_></_>
        <_>
          <_>
            <feature>
              <rects>
                <_>
                  9 15 2 4 -1.</_>
                <_>
                  10 15 1 4 2.</_></rects>
              <tilted>0</tilted></feature>
            <threshold>-4.8047369346022606e-03</threshold>
            <left_val>8.3162146563232131e-01</left_val>
            <right_val>-4.4108221530638458e-01</right_val></_></_>
        <_>
          <_>
            <feature>
              <rects>
                <_>
                  9 10 5 14 -1.</_>
                <_>
                  9 17 5 7 2.</_></rects>
              <tilted>0</tilted></feature>
            <threshold>5.3611390292644501e-02</threshold>
            <left_val>-4.6437022421166141e-01</left_val>
            <right_val>7.3885641142189828e-01</right_val></_></_></trees>
      <stage_threshold>-1.2630542516708374e+00</stage_threshold>
      <parent>0</parent>
      <next>-1</next></_>
    <_>
      <trees>
        <_>
          <_>
            <feature>
              <rects>
                <_>
                  9 15 6 6 -1.</_>
                <_>
                  11 15 2 6 3.</_></rects>
              <tilted>0</tilted></feature>
            <threshold>3.6818895488977432e-02</threshold>
            <left_val>-8.3472609099349604e-01</left_val>
            <right_val>7.5757575757575757e-01</right_val></_></_>
        <_>
          <_>
            <feature>
              <rects>
                <_>
                  10 14 6 7 -1.</_>
                <_>
                  12 14 2 7 3.</_></rects>
              <tilted>0</tilted></feature>
            <threshold>-3.7660609930753708e-02</threshold>
            <left_val>7.6928588478985427e-01</left_val>
            <right_val>-5.9925164353273863e-01</right_val></_></_>
        <_>
          <_>
            <feature>
              <rects>
                <_>
                  4 2 13 9 -1.</_>
                <_>
                  4 5 13 3 3.</_></rects>
              <tilted>0</tilted></feature>
            <threshold>-3.1677499413490295e-02</threshold>
            <left_val>5.4565164099719921e-01</left_val>
            <right_val>-6.9408808283952095e-01</right_val></_></_>
        <_>
          <_>
            <feature>
              <rects>
                <_>
                  16 16 8 6 -1.</_>
                <_>
                  16 19 8 3 2.</_></rects>
              <tilted>0</tilted></feature>
            <threshold>5.2027208730578423e-03</threshold>
            <left_val>3.5163192839695817e-01</left_val>
            <right_val>-9.1931141320231580e-01</right_val></_></_>
        <_>
          <_>
            <feature>
              <rects>
                <_>
                  13 5 6 8 -1.</_>
                <_>
                  16 5 3 8 2.</_></rects>
              <tilted>0</tilted></feature>
            <threshold>2.3840211331844330e-02</threshold>
            <left_val>-6.5388942949258988e-01</left_val>
            <right_val>4.6890084607812654e-01</right_val></_></_></trees>
      <stage_threshold>-1.3387366533279419e+00</stage_threshold>
      <parent>1</parent>
      <next>-1</next></_>
    <_>
      <trees>
        <_>
          <_>
            <feature>
              <rects>
                <_>
                  7 10 4 10 -1.</_>
                <_>
                  7 10 2 5 2.</_>
                <_>
                  9 15 2 5 2.</_></rects>
              <tilted>0</tilted></feature>
            <threshold>3.2581880688667297e-02</threshold>
            <left_val>-8.2172701949860250e-01</left_val>
            <right_val>6.1616161616161602e-01</right_val></_></_>
        <_>
          <_>
            <feature>
              <rects>
                <_>
                  9 14 6 10 -1.</_>
                <_>
                  11 14 2 10 3.</_></rects>
              <tilted>0</tilted></feature>
            <threshold>3.8025610148906708e-02</threshold>
            <left_val>-5.7119869848179861e-01</left_val>
            <right_val>7.0258765730668338e-01</right_val></_></_>
        <_>
          <_>
            <feature>
              <rects>
                <_>
                  4 17 16 7 -1.</_>
                <_>
                  12 17 8 7 2.</_></rects>
              <tilted>0</tilted></feature>
            <threshold>-1.0449267923831940e-02</threshold>
            <left_val>-1.</left_val>
            <right_val>3.1856029739432923e-01</right_val></_></_>
        <_>
          <_>
            <feature>
              <rects>
                <_>
                  10 2 5 9 -1.</_>
                <_>
                  10 5 5 3 3.</_></rects>
              <tilted>0</tilted></feature>
            <threshold>-1.4883346855640411e-02</threshold>
            <left_val>3.5371981442689426e-01</left_val>
            <right_val>-7.7506020047040858e-01</right_val></_></_>
        <_>
          <_>
            <feature>
              <rects>
                <_>
                  0 13 2 6 -1.</_>
                <_>
                  0 15 2 2 3.</_></rects>
              <tilted>0</tilted></feature>
            <threshold>-3.4190012956969440e-04</threshold>
            <left_val>-9.4066176385512157e-01</left_val>
            <right_val>2.8173913822807245e-01</right_val></_></_>
        <_>
          <_>
            <feature>
              <rects>
                <_>
                  6 6 5 12 -1.</_>
                <_>
                  6 12 5 6 2.</_></rects>
              <tilted>0</tilted></feature>
            <threshold>7.9072760418057442e-03</threshold>
            <left_val>-7.7946744593356132e-01</left_val>
            <right_val>3.1981355593242172e-01</right_val></_></_></trees>
      <stage_threshold>-1.3414938449859619e+00</stage_threshold>
      <parent>2</parent>
      <next>-1</next></_>
    <_>
      <trees>
        <_>
          <_>
            <feature>
              <rects>
                <_>
                  3 17 9 5 -1.</_>
                <_>
                  6 17 3 5 3.</_></rects>
              <tilted>0</tilted></feature>
            <threshold>-6.5316431224346161e-02</threshold>
            <left_val>5.7999999999999985e-01</left_val>
            <right_val>-8.1970260223047842e-01</right_val></_></_>
        <_>
          <_>
            <feature>
              <rects>
                <_>
                  3 19 21 2 -1.</_>
                <_>
                  10 19 7 2 3.</_></rects>
              <tilted>0</tilted></feature>
            <threshold>-3.1547429971396923e-03</threshold>
            <left_val>1.1924593888579083e-01</left_val>
            <right_val>-9.5424702687704543e-01</right_val></_></_>
        <_>
          <_>
            <feature>
              <rects>
                <_>
                  11 9 2 6 -1.</_>
                <_>
                  11 11 2 2 3.</_></rects>
              <tilted>0</tilted></feature>
            <threshold>-6.8618678487837315e-03</threshold>
            <left_val>5.6114191287268989e-01</left_val>
            <right_val>-5.3627794993750777e-01</right_val></_></_>
        <_>
          <_>
            <feature>
              <rects>
                <_>
                  7 6 5 3 -1.</_>
                <_>
                  7 7 5 1 3.</_></rects>
              <tilted>0</tilted></feature>
            <threshold>-2.9777861200273037e-03</threshold>
            <left_val>5.6974364773219455e-01</left_val>
            <right_val>-4.7043105547735470e-01</right_val></_></_>
        <_>
          <_>
            <feature>
              <rects>
                <_>
                  4 8 6 3 -1.</_>
                <_>
                  7 8 3 3 2.</_></rects>
              <tilted>0</tilted></feature>
            <threshold>-5.2803452126681805e-03</threshold>
            <left_val>3.8138873745781543e-01</left_val>
            <right_val>-7.8669043359835344e-01</right_val></_></_>
        <_>
          <_>
            <feature>
              <rects>
                <_>
                  18 17 2 5 -1.</_>
                <_>
                  19 17 1 5 2.</_></rects>
              <tilted>0</tilted></feature>
            <threshold>1.3650361324835103e-05</threshold>
            <left_val>-8.0590021824885461e-01</left_val>
            <right_val>3.2050637862267845e-01</right_val></_></_></trees>
      <stage_threshold>-1.1331750154495239e+00</stage_threshold>
      <parent>3</parent>
      <next>-1</next></_>
    <_>
      <trees>
        <_>
          <_>
            <feature>
              <rects>
                <_>
                  8 16 6 5 -1.</_>
                <_>
                  10 16 2 5 3.</_></rects>
              <tilted>0</tilted></feature>
            <threshold>2.7604449540376663e-02</threshold>
            <left_val>-8.5801217038539135e-01</left_val>
            <right_val>1.1578947368421037e-01</right_val></_></_>
        <_>
          <_>
            <feature>
              <rects>
                <_>
                  9 3 6 3 -1.</_>
                <_>
                  9 4 6 1 3.</_></rects>
              <tilted>0</tilted></feature>
            <threshold>5.5657094344496727e-03</threshold>
            <left_val>-5.9500512631588121e-01</left_val>
            <right_val>4.8564800918459977e-01</right_val></_></_>
        <_>
          <_>
            <feature>
              <rects>
                <_>
                  4 8 12 16 -1.</_>
                <_>
                  4 16 12 8 2.</_></rects>
              <tilted>0</tilted></feature>
            <threshold>1.2697684764862061e-01</threshold>
            <left_val>-4.7571644910853000e-01</left_val>
            <right_val>5.3029791003221227e-01</right_val></_></_>
        <_>
          <_>
            <feature>
              <rects>
                <_>
                  7 16 6 4 -1.</_>
                <_>
                  9 16 2 4 3.</_></rects>
              <tilted>0</tilted></feature>
            <threshold>2.0998848602175713e-02</threshold>
            <left_val>-2.9259040475614795e-01</left_val>
            <right_val>7.6459338413880784e-01</right_val></_></_>
        <_>
          <_>
            <feature>
              <rects>
                <_>
                  18 16 6 7 -1.</_>
                <_>
                  21 16 3 7 2.</_></rects>
              <tilted>0</tilted></feature>
            <threshold>2.0487309666350484e-04</threshold>
            <left_val>-7.5773949016458275e-01</left_val>
            <right_val>3.2417591122095885e-01</right_val></_></_>
        <_>
          <_>
            <feature>
              <rects>
                <_>
                  19 17 4 6 -1.</_>
                <_>
                  21 17 2 6 2.</_></rects>
              <tilted>0</tilted></feature>
            <threshold>3.1996220350265503e-03</threshold>
            <left_val>2.9117288280784642e-01</left_val>
            <right_val>-8.5256237923769485e-01</right_val></_></_>
        <_>
          <_>
            <feature>
              <rects>
                <_>
                  4 9 4 4 -1.</_>
                <_>
                  4 9 2 2 2.</_>
                <_>
                  6 11 2 2 2.</_></rects>
              <tilted>0</tilted></feature>
            <threshold>5.3925728425383568e-03</threshold>
            <left_val>-4.0059200931585004e-01</left_val>
            <right_val>6.1764252656907148e-01</right_val></_></_>
        <_>
          <_>
            <feature>
              <rects>
                <_>
                  13 16 3 2 -1.</_>
                <_>
                  14 16 1 2 3.</_></rects>
              <tilted>0</tilted></feature>
            <threshold>-3.0369516462087631e-03</threshold>
            <left_val>7.2578697352078003e-01</left_val>
            <right_val>-3.4471421600417745e-01</right_val></_></_></trees>
      <stage_threshold>-1.4533809423446655e+00</stage_threshold>
      <parent>4</parent>
      <next>-1</next></_>
    <_>
      <trees>
        <_>
          <_>
            <feature>
              <rects>
                <_>
                  1 13 10 6 -1.</_>
                <_>
                  6 13 5 6 2.</_></rects>
              <tilted>0</tilted></feature>
            <threshold>-6.3515901565551758e-02</threshold>
            <left_val>-1.2027491408934701e-01</left_val>
            <right_val>-8.9152542372880994e-01</right_val></_></_>
        <_>
          <_>
            <feature>
              <rects>
                <_>
                  6 7 5 4 -1.</_>
                <_>
                  6 9 5 2 2.</_></rects>
              <tilted>0</tilted></feature>
            <threshold>1.0301263071596622e-02</threshold>
            <left_val>-5.9066050091406486e-01</left_val>
            <right_val>3.4591851984151223e-01</right_val></_></_>
        <_>
          <_>
            <feature>
              <rects>
                <_>
                  18 18 3 2 -1.</_>
                <_>
                  19 18 1 2 3.</_></rects>
              <tilted>0</tilted></feature>
            <threshold>3.5665498580783606e-04</threshold>
            <left_val>1.9341017668189742e-01</left_val>
            <right_val>-9.2363449882959114e-01</right_val></_></_>
        <_>
          <_>
            <feature>
              <rects>
                <_>
                  22 14 1 10 -1.</_>
                <_>
                  22 19 1 5 2.</_></rects>
              <tilted>0</tilted></feature>
            <threshold>-4.5334920287132263e-05</threshold>
            <left_val>3.9060621367463955e-01</left_val>
            <right_val>-4.9278714403547680e-01</right_val></_></_>
        <_>
          <_>
            <feature>
              <rects>
                <_>
                  0 13 2 8 -1.</_>
                <_>
                  0 13 1 4 2.</_>
                <_>
                  1 17 1 4 2.</_></rects>
              <tilted>0</tilted></feature>
            <threshold>-4.6845746692270041e-04</threshold>
            <left_val>-9.1647528482143303e-01</left_val>
            <right_val>2.0524713214768725e-01</right_val></_></_>
        <_>
          <_>
            <feature>
              <rects>
                <_>
                  9 1 10 16 -1.</_>
                <_>
                  9 1 5 8 2.</_>
                <_>
                  14 9 5 8 2.</_></rects>
              <tilted>0</tilted></feature>
            <threshold>-7.6534422114491463e-03</threshold>
            <left_val>-8.0371777586582105e-01</left_val>
            <right_val>2.0750284747717038e-01</right_val></_></_>
        <_>
          <_>
            <feature>
              <rects>
                <_>
                  12 18 12 6 -1.</_>
                <_>
                  12 20 12 2 3.</_></rects>
              <tilted>0</tilted></feature>
            <threshold>-1.2480269651859999e-03</threshold>
            <left_val>3.9350139657533240e-01</left_val>
            <right_val>-5.2527407313623198e-01</right_val></_></_>
        <_>
          <_>
            <feature>
              <rects>
                <_>
                  4 9 7 12 -1.</_>
                <_>
                  4 13 7 4 3.</_></rects>
              <tilted>0</tilted></feature>
            <threshold>-2.8357997536659241e-02</threshold>
            <left_val>-9.8317986179908090e-01</left_val>
            <right_val>1.9669291199048169e-01</right_val></_></_>
        <_>
          <_>
            <feature>
              <rects>
                <_>
                  11 7 4 14 -1.</_>
                <_>
                  11 7 2 7 2.</_>
                <_>
                  13 14 2 7 2.</_></rects>
              <tilted>0</tilted></feature>
            <threshold>-2.7504710480570793e-02</threshold>
            <left_val>5.7063073296975064e-01</left_val>
            <right_val>-3.8185583450132615e-01</right_val></_></_></trees>
      <stage_threshold>-1.3809999227523804e+00</stage_threshold>
      <parent>5</parent>
      <next>-1</next></_></stages></cascade>
</opencv_storage>
